digraph Tree {
node [shape=box, style="filled, rounded", color="black", fontname="helvetica"] ;
edge [fontname="helvetica"] ;
0 [label="total sulfur dioxide <= 67.5\ngini = 0.371\nsamples = 4872\nvalue = [3673, 1199]\nclass = red", fillcolor="#edaa7a"] ;
1 [label="chlorides <= 0.046\ngini = 0.175\nsamples = 1056\nvalue = [102, 954]\nclass = white", fillcolor="#4ea7e8"] ;
0 -> 1 [labeldistance=2.5, labelangle=45, headlabel="True"] ;
2 [label="sulphates <= 0.555\ngini = 0.233\nsamples = 104\nvalue = [90, 14]\nclass = red", fillcolor="#e99558"] ;
1 -> 2 ;
3 [label="volatile acidity <= 0.657\ngini = 0.049\nsamples = 80\nvalue = [78, 2]\nclass = red", fillcolor="#e6843e"] ;
2 -> 3 ;
4 [label="gini = 0.0\nsamples = 76\nvalue = [76, 0]\nclass = red", fillcolor="#e58139"] ;
3 -> 4 ;
5 [label="pH <= 3.35\ngini = 0.5\nsamples = 4\nvalue = [2, 2]\nclass = red", fillcolor="#ffffff"] ;
3 -> 5 ;
6 [label="gini = 0.0\nsamples = 2\nvalue = [2, 0]\nclass = red", fillcolor="#e58139"] ;
5 -> 6 ;
7 [label="gini = 0.0\nsamples = 2\nvalue = [0, 2]\nclass = white", fillcolor="#399de5"] ;
5 -> 7 ;
8 [label="total sulfur dioxide <= 47.5\ngini = 0.5\nsamples = 24\nvalue = [12, 12]\nclass = red", fillcolor="#ffffff"] ;
2 -> 8 ;
9 [label="chlorides <= 0.045\ngini = 0.165\nsamples = 11\nvalue = [1, 10]\nclass = white", fillcolor="#4da7e8"] ;
8 -> 9 ;
10 [label="gini = 0.0\nsamples = 10\nvalue = [0, 10]\nclass = white", fillcolor="#399de5"] ;
9 -> 10 ;
11 [label="gini = 0.0\nsamples = 1\nvalue = [1, 0]\nclass = red", fillcolor="#e58139"] ;
9 -> 11 ;
12 [label="chlorides <= 0.045\ngini = 0.26\nsamples = 13\nvalue = [11, 2]\nclass = red", fillcolor="#ea985d"] ;
8 -> 12 ;
13 [label="gini = 0.0\nsamples = 11\nvalue = [11, 0]\nclass = red", fillcolor="#e58139"] ;
12 -> 13 ;
14 [label="gini = 0.0\nsamples = 2\nvalue = [0, 2]\nclass = white", fillcolor="#399de5"] ;
12 -> 14 ;
15 [label="sulphates <= 0.365\ngini = 0.025\nsamples = 952\nvalue = [12, 940]\nclass = white", fillcolor="#3c9ee5"] ;
1 -> 15 ;
16 [label="gini = 0.0\nsamples = 4\nvalue = [4, 0]\nclass = red", fillcolor="#e58139"] ;
15 -> 16 ;
17 [label="density <= 0.991\ngini = 0.017\nsamples = 948\nvalue = [8, 940]\nclass = white", fillcolor="#3b9ee5"] ;
15 -> 17 ;
18 [label="gini = 0.0\nsamples = 2\nvalue = [2, 0]\nclass = red", fillcolor="#e58139"] ;
17 -> 18 ;
19 [label="residual sugar <= 11.7\ngini = 0.013\nsamples = 946\nvalue = [6, 940]\nclass = white", fillcolor="#3a9ee5"] ;
17 -> 19 ;
20 [label="chlorides <= 0.051\ngini = 0.008\nsamples = 943\nvalue = [4, 939]\nclass = white", fillcolor="#3a9de5"] ;
19 -> 20 ;
21 [label="residual sugar <= 2.75\ngini = 0.245\nsamples = 14\nvalue = [2, 12]\nclass = white", fillcolor="#5aade9"] ;
20 -> 21 ;
22 [label="total sulfur dioxide <= 64.5\ngini = 0.142\nsamples = 13\nvalue = [1, 12]\nclass = white", fillcolor="#49a5e7"] ;
21 -> 22 ;
23 [label="gini = 0.0\nsamples = 12\nvalue = [0, 12]\nclass = white", fillcolor="#399de5"] ;
22 -> 23 ;
24 [label="gini = 0.0\nsamples = 1\nvalue = [1, 0]\nclass = red", fillcolor="#e58139"] ;
22 -> 24 ;
25 [label="gini = 0.0\nsamples = 1\nvalue = [1, 0]\nclass = red", fillcolor="#e58139"] ;
21 -> 25 ;
26 [label="density <= 0.993\ngini = 0.004\nsamples = 929\nvalue = [2, 927]\nclass = white", fillcolor="#399de5"] ;
20 -> 26 ;
27 [label="volatile acidity <= 0.34\ngini = 0.219\nsamples = 8\nvalue = [1, 7]\nclass = white", fillcolor="#55abe9"] ;
26 -> 27 ;
28 [label="gini = 0.0\nsamples = 1\nvalue = [1, 0]\nclass = red", fillcolor="#e58139"] ;
27 -> 28 ;
29 [label="gini = 0.0\nsamples = 7\nvalue = [0, 7]\nclass = white", fillcolor="#399de5"] ;
27 -> 29 ;
30 [label="sulphates <= 0.455\ngini = 0.002\nsamples = 921\nvalue = [1, 920]\nclass = white", fillcolor="#399de5"] ;
26 -> 30 ;
31 [label="volatile acidity <= 0.29\ngini = 0.062\nsamples = 31\nvalue = [1, 30]\nclass = white", fillcolor="#40a0e6"] ;
30 -> 31 ;
32 [label="gini = 0.0\nsamples = 1\nvalue = [1, 0]\nclass = red", fillcolor="#e58139"] ;
31 -> 32 ;
33 [label="gini = 0.0\nsamples = 30\nvalue = [0, 30]\nclass = white", fillcolor="#399de5"] ;
31 -> 33 ;
34 [label="gini = 0.0\nsamples = 890\nvalue = [0, 890]\nclass = white", fillcolor="#399de5"] ;
30 -> 34 ;
35 [label="volatile acidity <= 0.31\ngini = 0.444\nsamples = 3\nvalue = [2, 1]\nclass = red", fillcolor="#f2c09c"] ;
19 -> 35 ;
36 [label="gini = 0.0\nsamples = 1\nvalue = [0, 1]\nclass = white", fillcolor="#399de5"] ;
35 -> 36 ;
37 [label="gini = 0.0\nsamples = 2\nvalue = [2, 0]\nclass = red", fillcolor="#e58139"] ;
35 -> 37 ;
38 [label="chlorides <= 0.069\ngini = 0.12\nsamples = 3816\nvalue = [3571, 245]\nclass = red", fillcolor="#e78a47"] ;
0 -> 38 [labeldistance=2.5, labelangle=-45, headlabel="False"] ;
39 [label="volatile acidity <= 0.825\ngini = 0.019\nsamples = 3446\nvalue = [3413, 33]\nclass = red", fillcolor="#e5823b"] ;
38 -> 39 ;
40 [label="sulphates <= 1.125\ngini = 0.016\nsamples = 3438\nvalue = [3410, 28]\nclass = red", fillcolor="#e5823b"] ;
39 -> 40 ;
41 [label="chlorides <= 0.065\ngini = 0.015\nsamples = 3436\nvalue = [3410, 26]\nclass = red", fillcolor="#e5823b"] ;
40 -> 41 ;
42 [label="sulphates <= 0.805\ngini = 0.011\nsamples = 3378\nvalue = [3360, 18]\nclass = red", fillcolor="#e5823a"] ;
41 -> 42 ;
43 [label="chlorides <= 0.013\ngini = 0.008\nsamples = 3324\nvalue = [3311, 13]\nclass = red", fillcolor="#e5813a"] ;
42 -> 43 ;
44 [label="fixed acidity <= 5.85\ngini = 0.444\nsamples = 3\nvalue = [2, 1]\nclass = red", fillcolor="#f2c09c"] ;
43 -> 44 ;
45 [label="gini = 0.0\nsamples = 1\nvalue = [1, 0]\nclass = red", fillcolor="#e58139"] ;
44 -> 45 ;
46 [label="gini = 0.5\nsamples = 2\nvalue = [1, 1]\nclass = red", fillcolor="#ffffff"] ;
44 -> 46 ;
47 [label="volatile acidity <= 0.488\ngini = 0.007\nsamples = 3321\nvalue = [3309, 12]\nclass = red", fillcolor="#e5813a"] ;
43 -> 47 ;
48 [label="total sulfur dioxide <= 269.0\ngini = 0.004\nsamples = 3227\nvalue = [3220, 7]\nclass = red", fillcolor="#e58139"] ;
47 -> 48 ;
49 [label="residual sugar <= 0.925\ngini = 0.004\nsamples = 3221\nvalue = [3215, 6]\nclass = red", fillcolor="#e58139"] ;
48 -> 49 ;
50 [label="alcohol <= 12.6\ngini = 0.1\nsamples = 38\nvalue = [36, 2]\nclass = red", fillcolor="#e68844"] ;
49 -> 50 ;
51 [label="gini = 0.0\nsamples = 36\nvalue = [36, 0]\nclass = red", fillcolor="#e58139"] ;
50 -> 51 ;
52 [label="gini = 0.0\nsamples = 2\nvalue = [0, 2]\nclass = white", fillcolor="#399de5"] ;
50 -> 52 ;
53 [label="alcohol <= 13.55\ngini = 0.003\nsamples = 3183\nvalue = [3179, 4]\nclass = red", fillcolor="#e58139"] ;
49 -> 53 ;
54 [label="free sulfur dioxide <= 6.5\ngini = 0.002\nsamples = 3166\nvalue = [3163, 3]\nclass = red", fillcolor="#e58139"] ;
53 -> 54 ;
55 [label="residual sugar <= 11.95\ngini = 0.071\nsamples = 27\nvalue = [26, 1]\nclass = red", fillcolor="#e68641"] ;
54 -> 55 ;
56 [label="gini = 0.0\nsamples = 25\nvalue = [25, 0]\nclass = red", fillcolor="#e58139"] ;
55 -> 56 ;
57 [label="volatile acidity <= 0.32\ngini = 0.5\nsamples = 2\nvalue = [1, 1]\nclass = red", fillcolor="#ffffff"] ;
55 -> 57 ;
58 [label="gini = 0.0\nsamples = 1\nvalue = [1, 0]\nclass = red", fillcolor="#e58139"] ;
57 -> 58 ;
59 [label="gini = 0.0\nsamples = 1\nvalue = [0, 1]\nclass = white", fillcolor="#399de5"] ;
57 -> 59 ;
60 [label="citric acid <= 0.235\ngini = 0.001\nsamples = 3139\nvalue = [3137, 2]\nclass = red", fillcolor="#e58139"] ;
54 -> 60 ;
61 [label="pH <= 3.315\ngini = 0.01\nsamples = 389\nvalue = [387, 2]\nclass = red", fillcolor="#e5823a"] ;
60 -> 61 ;
62 [label="gini = 0.0\nsamples = 302\nvalue = [302, 0]\nclass = red", fillcolor="#e58139"] ;
61 -> 62 ;
63 [label="chlorides <= 0.045\ngini = 0.045\nsamples = 87\nvalue = [85, 2]\nclass = red", fillcolor="#e6843e"] ;
61 -> 63 ;
64 [label="gini = 0.0\nsamples = 62\nvalue = [62, 0]\nclass = red", fillcolor="#e58139"] ;
63 -> 64 ;
65 [label="total sulfur dioxide <= 92.0\ngini = 0.147\nsamples = 25\nvalue = [23, 2]\nclass = red", fillcolor="#e78c4a"] ;
63 -> 65 ;
66 [label="free sulfur dioxide <= 24.0\ngini = 0.5\nsamples = 2\nvalue = [1, 1]\nclass = red", fillcolor="#ffffff"] ;
65 -> 66 ;
67 [label="gini = 0.0\nsamples = 1\nvalue = [1, 0]\nclass = red", fillcolor="#e58139"] ;
66 -> 67 ;
68 [label="gini = 0.0\nsamples = 1\nvalue = [0, 1]\nclass = white", fillcolor="#399de5"] ;
66 -> 68 ;
69 [label="free sulfur dioxide <= 53.75\ngini = 0.083\nsamples = 23\nvalue = [22, 1]\nclass = red", fillcolor="#e68742"] ;
65 -> 69 ;
70 [label="gini = 0.0\nsamples = 20\nvalue = [20, 0]\nclass = red", fillcolor="#e58139"] ;
69 -> 70 ;
71 [label="total sulfur dioxide <= 148.0\ngini = 0.444\nsamples = 3\nvalue = [2, 1]\nclass = red", fillcolor="#f2c09c"] ;
69 -> 71 ;
72 [label="gini = 0.5\nsamples = 2\nvalue = [1, 1]\nclass = red", fillcolor="#ffffff"] ;
71 -> 72 ;
73 [label="gini = 0.0\nsamples = 1\nvalue = [1, 0]\nclass = red", fillcolor="#e58139"] ;
71 -> 73 ;
74 [label="gini = 0.0\nsamples = 2750\nvalue = [2750, 0]\nclass = red", fillcolor="#e58139"] ;
60 -> 74 ;
75 [label="citric acid <= 0.485\ngini = 0.111\nsamples = 17\nvalue = [16, 1]\nclass = red", fillcolor="#e78945"] ;
53 -> 75 ;
76 [label="gini = 0.0\nsamples = 16\nvalue = [16, 0]\nclass = red", fillcolor="#e58139"] ;
75 -> 76 ;
77 [label="gini = 0.0\nsamples = 1\nvalue = [0, 1]\nclass = white", fillcolor="#399de5"] ;
75 -> 77 ;
78 [label="pH <= 3.02\ngini = 0.278\nsamples = 6\nvalue = [5, 1]\nclass = red", fillcolor="#ea9a61"] ;
48 -> 78 ;
79 [label="gini = 0.0\nsamples = 1\nvalue = [0, 1]\nclass = white", fillcolor="#399de5"] ;
78 -> 79 ;
80 [label="gini = 0.0\nsamples = 5\nvalue = [5, 0]\nclass = red", fillcolor="#e58139"] ;
78 -> 80 ;
81 [label="pH <= 3.595\ngini = 0.101\nsamples = 94\nvalue = [89, 5]\nclass = red", fillcolor="#e68844"] ;
47 -> 81 ;
82 [label="total sulfur dioxide <= 70.5\ngini = 0.063\nsamples = 92\nvalue = [89, 3]\nclass = red", fillcolor="#e68540"] ;
81 -> 82 ;
83 [label="gini = 0.0\nsamples = 1\nvalue = [0, 1]\nclass = white", fillcolor="#399de5"] ;
82 -> 83 ;
84 [label="sulphates <= 0.755\ngini = 0.043\nsamples = 91\nvalue = [89, 2]\nclass = red", fillcolor="#e6843d"] ;
82 -> 84 ;
85 [label="total sulfur dioxide <= 90.5\ngini = 0.022\nsamples = 88\nvalue = [87, 1]\nclass = red", fillcolor="#e5823b"] ;
84 -> 85 ;
86 [label="total sulfur dioxide <= 86.5\ngini = 0.153\nsamples = 12\nvalue = [11, 1]\nclass = red", fillcolor="#e78c4b"] ;
85 -> 86 ;
87 [label="gini = 0.0\nsamples = 11\nvalue = [11, 0]\nclass = red", fillcolor="#e58139"] ;
86 -> 87 ;
88 [label="gini = 0.0\nsamples = 1\nvalue = [0, 1]\nclass = white", fillcolor="#399de5"] ;
86 -> 88 ;
89 [label="gini = 0.0\nsamples = 76\nvalue = [76, 0]\nclass = red", fillcolor="#e58139"] ;
85 -> 89 ;
90 [label="fixed acidity <= 6.8\ngini = 0.444\nsamples = 3\nvalue = [2, 1]\nclass = red", fillcolor="#f2c09c"] ;
84 -> 90 ;
91 [label="gini = 0.0\nsamples = 2\nvalue = [2, 0]\nclass = red", fillcolor="#e58139"] ;
90 -> 91 ;
92 [label="gini = 0.0\nsamples = 1\nvalue = [0, 1]\nclass = white", fillcolor="#399de5"] ;
90 -> 92 ;
93 [label="gini = 0.0\nsamples = 2\nvalue = [0, 2]\nclass = white", fillcolor="#399de5"] ;
81 -> 93 ;
94 [label="chlorides <= 0.056\ngini = 0.168\nsamples = 54\nvalue = [49, 5]\nclass = red", fillcolor="#e88e4d"] ;
42 -> 94 ;
95 [label="pH <= 3.445\ngini = 0.075\nsamples = 51\nvalue = [49, 2]\nclass = red", fillcolor="#e68641"] ;
94 -> 95 ;
96 [label="gini = 0.0\nsamples = 45\nvalue = [45, 0]\nclass = red", fillcolor="#e58139"] ;
95 -> 96 ;
97 [label="total sulfur dioxide <= 104.0\ngini = 0.444\nsamples = 6\nvalue = [4, 2]\nclass = red", fillcolor="#f2c09c"] ;
95 -> 97 ;
98 [label="gini = 0.0\nsamples = 2\nvalue = [0, 2]\nclass = white", fillcolor="#399de5"] ;
97 -> 98 ;
99 [label="gini = 0.0\nsamples = 4\nvalue = [4, 0]\nclass = red", fillcolor="#e58139"] ;
97 -> 99 ;
100 [label="gini = 0.0\nsamples = 3\nvalue = [0, 3]\nclass = white", fillcolor="#399de5"] ;
94 -> 100 ;
101 [label="sulphates <= 0.535\ngini = 0.238\nsamples = 58\nvalue = [50, 8]\nclass = red", fillcolor="#e99559"] ;
41 -> 101 ;
102 [label="volatile acidity <= 0.685\ngini = 0.048\nsamples = 41\nvalue = [40, 1]\nclass = red", fillcolor="#e6843e"] ;
101 -> 102 ;
103 [label="gini = 0.0\nsamples = 40\nvalue = [40, 0]\nclass = red", fillcolor="#e58139"] ;
102 -> 103 ;
104 [label="gini = 0.0\nsamples = 1\nvalue = [0, 1]\nclass = white", fillcolor="#399de5"] ;
102 -> 104 ;
105 [label="pH <= 3.195\ngini = 0.484\nsamples = 17\nvalue = [10, 7]\nclass = red", fillcolor="#f7d9c4"] ;
101 -> 105 ;
106 [label="alcohol <= 10.55\ngini = 0.219\nsamples = 8\nvalue = [7, 1]\nclass = red", fillcolor="#e99355"] ;
105 -> 106 ;
107 [label="gini = 0.0\nsamples = 7\nvalue = [7, 0]\nclass = red", fillcolor="#e58139"] ;
106 -> 107 ;
108 [label="gini = 0.0\nsamples = 1\nvalue = [0, 1]\nclass = white", fillcolor="#399de5"] ;
106 -> 108 ;
109 [label="density <= 0.996\ngini = 0.444\nsamples = 9\nvalue = [3, 6]\nclass = white", fillcolor="#9ccef2"] ;
105 -> 109 ;
110 [label="alcohol <= 11.45\ngini = 0.48\nsamples = 5\nvalue = [3, 2]\nclass = red", fillcolor="#f6d5bd"] ;
109 -> 110 ;
111 [label="gini = 0.0\nsamples = 2\nvalue = [2, 0]\nclass = red", fillcolor="#e58139"] ;
110 -> 111 ;
112 [label="pH <= 3.235\ngini = 0.444\nsamples = 3\nvalue = [1, 2]\nclass = white", fillcolor="#9ccef2"] ;
110 -> 112 ;
113 [label="gini = 0.0\nsamples = 1\nvalue = [1, 0]\nclass = red", fillcolor="#e58139"] ;
112 -> 113 ;
114 [label="gini = 0.0\nsamples = 2\nvalue = [0, 2]\nclass = white", fillcolor="#399de5"] ;
112 -> 114 ;
115 [label="gini = 0.0\nsamples = 4\nvalue = [0, 4]\nclass = white", fillcolor="#399de5"] ;
109 -> 115 ;
116 [label="gini = 0.0\nsamples = 2\nvalue = [0, 2]\nclass = white", fillcolor="#399de5"] ;
40 -> 116 ;
117 [label="fixed acidity <= 6.45\ngini = 0.469\nsamples = 8\nvalue = [3, 5]\nclass = white", fillcolor="#b0d8f5"] ;
39 -> 117 ;
118 [label="gini = 0.0\nsamples = 5\nvalue = [0, 5]\nclass = white", fillcolor="#399de5"] ;
117 -> 118 ;
119 [label="gini = 0.0\nsamples = 3\nvalue = [3, 0]\nclass = red", fillcolor="#e58139"] ;
117 -> 119 ;
120 [label="density <= 0.995\ngini = 0.489\nsamples = 370\nvalue = [158, 212]\nclass = white", fillcolor="#cde6f8"] ;
38 -> 120 ;
121 [label="citric acid <= 0.06\ngini = 0.128\nsamples = 102\nvalue = [95, 7]\nclass = red", fillcolor="#e78a48"] ;
120 -> 121 ;
122 [label="gini = 0.0\nsamples = 3\nvalue = [0, 3]\nclass = white", fillcolor="#399de5"] ;
121 -> 122 ;
123 [label="alcohol <= 11.15\ngini = 0.078\nsamples = 99\nvalue = [95, 4]\nclass = red", fillcolor="#e68641"] ;
121 -> 123 ;
124 [label="gini = 0.0\nsamples = 87\nvalue = [87, 0]\nclass = red", fillcolor="#e58139"] ;
123 -> 124 ;
125 [label="density <= 0.992\ngini = 0.444\nsamples = 12\nvalue = [8, 4]\nclass = red", fillcolor="#f2c09c"] ;
123 -> 125 ;
126 [label="gini = 0.0\nsamples = 7\nvalue = [7, 0]\nclass = red", fillcolor="#e58139"] ;
125 -> 126 ;
127 [label="sulphates <= 0.68\ngini = 0.32\nsamples = 5\nvalue = [1, 4]\nclass = white", fillcolor="#6ab6ec"] ;
125 -> 127 ;
128 [label="gini = 0.0\nsamples = 4\nvalue = [0, 4]\nclass = white", fillcolor="#399de5"] ;
127 -> 128 ;
129 [label="gini = 0.0\nsamples = 1\nvalue = [1, 0]\nclass = red", fillcolor="#e58139"] ;
127 -> 129 ;
130 [label="residual sugar <= 8.0\ngini = 0.36\nsamples = 268\nvalue = [63, 205]\nclass = white", fillcolor="#76bbed"] ;
120 -> 130 ;
131 [label="total sulfur dioxide <= 158.5\ngini = 0.083\nsamples = 208\nvalue = [9, 199]\nclass = white", fillcolor="#42a1e6"] ;
130 -> 131 ;
132 [label="volatile acidity <= 0.24\ngini = 0.029\nsamples = 202\nvalue = [3, 199]\nclass = white", fillcolor="#3c9ee5"] ;
131 -> 132 ;
133 [label="gini = 0.0\nsamples = 3\nvalue = [3, 0]\nclass = red", fillcolor="#e58139"] ;
132 -> 133 ;
134 [label="gini = 0.0\nsamples = 199\nvalue = [0, 199]\nclass = white", fillcolor="#399de5"] ;
132 -> 134 ;
135 [label="gini = 0.0\nsamples = 6\nvalue = [6, 0]\nclass = red", fillcolor="#e58139"] ;
131 -> 135 ;
136 [label="total sulfur dioxide <= 96.0\ngini = 0.18\nsamples = 60\nvalue = [54, 6]\nclass = red", fillcolor="#e88f4f"] ;
130 -> 136 ;
137 [label="free sulfur dioxide <= 20.5\ngini = 0.444\nsamples = 9\nvalue = [3, 6]\nclass = white", fillcolor="#9ccef2"] ;
136 -> 137 ;
138 [label="gini = 0.0\nsamples = 3\nvalue = [3, 0]\nclass = red", fillcolor="#e58139"] ;
137 -> 138 ;
139 [label="gini = 0.0\nsamples = 6\nvalue = [0, 6]\nclass = white", fillcolor="#399de5"] ;
137 -> 139 ;
140 [label="gini = 0.0\nsamples = 51\nvalue = [51, 0]\nclass = red", fillcolor="#e58139"] ;
136 -> 140 ;
}